#pragma once

#define K 3
#define IMG_C 1
#define OUT_C 32

static const float conv1_weights[K][K][IMG_C][OUT_C] = {
  {
    {
      {2.17438802e-01, 1.86832830e-01, -7.02623054e-02, 2.34146819e-01, -2.39118505e-02, -1.76520377e-01, 1.67298242e-01, 1.40607223e-01, -2.67873853e-01, -7.69339055e-02, 2.83373654e-01, 2.54960358e-01, -1.69916764e-01, -2.22361311e-01, 1.59430802e-01, 9.08290073e-02, 2.05695748e-01, 4.15288694e-02, 1.26556933e-01, 7.97707066e-02, 1.97426140e-01, -4.39450294e-02, 2.57144094e-01, 2.09376857e-01, -5.74271157e-02, -1.44782737e-02, 1.80559605e-01, -3.08587831e-02, 2.26778075e-01, -1.24432892e-01, 1.02050461e-01, 1.27379462e-01}
    },
    {
      {-1.11808755e-01, 1.08583055e-01, -3.17436308e-02, 2.81190991e-01, -2.34018087e-01, 5.09796552e-02, 2.50825018e-01, -2.27675005e-03, -1.64324075e-01, 1.04369983e-01, 1.76779762e-01, 2.40841329e-01, 1.73427373e-01, 1.29576176e-01, 1.57065064e-01, -1.36395320e-01, 2.06908256e-01, 5.80754764e-02, -2.11334080e-01, 1.89030141e-01, -6.63778633e-02, 3.38466018e-02, 1.78697124e-01, 1.99543640e-01, 1.43133834e-01, 1.72910005e-01, 1.32811844e-01, -6.09515384e-02, 6.65310025e-02, -6.56825975e-02, 6.60220981e-02, -1.43520057e-01}
    },
    {
      {-9.11126286e-02, 1.44946381e-01, -1.39987990e-01, 1.04919866e-01, -2.10746393e-01, 2.36909941e-01, 6.46560416e-02, 6.87615573e-02, 1.92790315e-01, -5.95314205e-02, 2.40236804e-01, -1.13510773e-01, 1.54882967e-01, 1.23080008e-01, -1.97903842e-01, 6.22345209e-02, 6.57208264e-02, -9.72533375e-02, 1.24481870e-02, -2.01379761e-01, -1.64919719e-01, -1.17911428e-01, 2.42096901e-01, 2.86545098e-01, 2.96497077e-01, 1.60024259e-02, -1.30839124e-01, -2.02766940e-01, -2.75225431e-01, 2.54263848e-01, 1.36108354e-01, -8.65151659e-02}
    }
  },
  {
    {
      {2.35515416e-01, 1.75629243e-01, -6.23270795e-02, 6.70501664e-02, -8.80081281e-02, -2.17097759e-01, -2.21271336e-01, 5.72402626e-02, -2.16310486e-01, 7.90922865e-02, 2.28055835e-01, 2.83570766e-01, -7.53602907e-02, -1.74288407e-01, 1.84666961e-01, -1.25336006e-01, 2.45445326e-01, 1.68657973e-01, 9.72275361e-02, 1.00775748e-01, 1.65352039e-02, -6.45417050e-02, 2.95185804e-01, 3.31124663e-02, -1.57301500e-01, -1.11820862e-01, 1.62717357e-01, -9.85871553e-02, 4.79647219e-02, -2.06139341e-01, 1.58362351e-02, 1.44977078e-01}
    },
    {
      {-1.17174707e-01, 2.63374776e-01, -2.00063977e-02, 2.92882055e-01, -1.12679392e-01, 1.41025171e-01, 4.43271250e-02, 1.45196602e-01, -2.22946387e-02, 2.69139595e-02, 2.42654204e-01, 1.80157959e-01, -3.68832634e-03, 5.53356782e-02, 1.40979871e-01, -2.12982967e-01, 3.10133249e-01, -7.42390156e-02, -1.47392854e-01, 8.17257240e-02, -2.67404858e-02, -3.11179571e-02, 2.19020784e-01, 3.51439089e-01, -4.71303100e-03, -1.45508349e-01, 1.56820323e-02, 2.04628527e-01, 5.77801764e-02, 1.51481777e-01, -2.00375557e-01, -2.35391110e-02}
    },
    {
      {-2.43421689e-01, 1.32019877e-01, -1.28325358e-01, 2.72378683e-01, -7.93192163e-03, 1.57830343e-01, 1.73156261e-01, -3.64369974e-02, 2.81825513e-01, -1.36682857e-03, 3.07667404e-01, -1.07465550e-01, 3.33849788e-01, 2.74660379e-01, -1.51820436e-01, 1.86535437e-03, 2.07915828e-01, -2.06477746e-01, -2.26377726e-01, -1.64322391e-01, -1.47025660e-01, -1.43248187e-02, 2.84066409e-01, 3.42187732e-01, 3.41168582e-01, -1.79803476e-01, -1.80691600e-01, -1.23845682e-01, -1.90691173e-01, 2.42240384e-01, 2.96318121e-02, 1.25973359e-01}
    }
  },
  {
    {
      {2.56046861e-01, 2.47332856e-01, -3.62999481e-03, 1.71381906e-01, 1.04794018e-01, -1.27493367e-01, -3.15520197e-01, -1.94963440e-01, 5.69807105e-02, 1.84736162e-01, 1.88441560e-01, 1.03673883e-01, -2.52517611e-01, 1.79746598e-02, 7.13222101e-02, 1.69429228e-01, 3.40691715e-01, 1.12035237e-01, 1.21447705e-01, 1.54166549e-01, 1.80354327e-01, -6.55421466e-02, 2.62568384e-01, 2.81280398e-01, -2.93703407e-01, 1.48693934e-01, 2.32560664e-01, 1.45376265e-01, 1.65614083e-01, -5.51325902e-02, -2.35849798e-01, -1.91205606e-01}
    },
    {
      {3.57384942e-02, 2.77460873e-01, 6.79817945e-02, 8.35576355e-02, 1.63688168e-01, 8.38300511e-02, -4.88951020e-02, -6.64768144e-02, 1.76835090e-01, -1.27505183e-01, 3.31710219e-01, 1.77601397e-01, 2.29303598e-01, 6.08221395e-03, -1.29893616e-01, 1.37938738e-01, 3.11147928e-01, 1.55621357e-02, 1.24528550e-01, -6.04066402e-02, 6.75487816e-02, 4.84542772e-02, 2.54024357e-01, 1.43319279e-01, 1.45414695e-02, -6.72078580e-02, 1.64437637e-01, 2.24899262e-01, 1.74536929e-01, -8.65614265e-02, 4.16815355e-02, -9.75870341e-02}
    },
    {
      {-2.41827622e-01, 1.30671814e-01, -5.44173382e-02, 4.82695624e-02, 2.82369345e-01, 2.68834025e-01, 1.09712228e-01, -1.56319618e-01, 1.03256620e-01, -2.09796593e-01, 3.31626654e-01, -3.27387801e-03, 3.25096399e-01, 2.08414987e-01, -2.22898185e-01, -5.03289774e-02, 3.13721418e-01, -9.71828774e-02, 6.72754273e-02, -2.21682042e-01, -1.71513930e-01, -8.46954361e-02, 2.98683673e-01, 2.50130326e-01, 2.29705125e-01, 1.10629603e-01, -1.52169138e-01, -5.42152040e-02, -1.95405677e-01, 2.44820476e-01, 9.35086515e-03, 1.70310795e-01}
    }
  }
};

static const float conv1_biases[OUT_C] = {6.11658096e-02, -6.87506795e-02, -1.79267265e-02, -3.60259227e-02, 1.16475299e-01, -5.02909012e-02, -3.89217436e-02, 4.77377921e-02, 3.55109200e-02, 5.53130545e-02, -2.06852611e-02, -1.03433877e-01, -9.39469710e-02, -8.16601962e-02, 4.02207784e-02, 4.22016047e-02, -7.41568059e-02, 6.16946891e-02, 2.89259497e-02, 5.57141267e-02, 9.30604190e-02, -1.05405971e-02, -6.96668178e-02, -7.08042532e-02, -6.67311028e-02, 5.04959598e-02, -7.36551061e-02, 2.72187032e-02, 8.45670886e-03, -6.17274866e-02, 4.27829809e-02, -4.32616053e-03};
